digraph Tree {
node [shape=box] ;
0 [label="X[3] <= 0.5\ngini = 0.42\nsamples = 10\nvalue = [7, 3]"] ;
1 [label="X[2] <= 1.5\ngini = 0.375\nsamples = 4\nvalue = [1, 3]"] ;
0 -> 1 [labeldistance=2.5, labelangle=45, headlabel="True"] ;
2 [label="gini = 0.0\nsamples = 3\nvalue = [0, 3]"] ;
1 -> 2 ;
3 [label="gini = 0.0\nsamples = 1\nvalue = [1, 0]"] ;
1 -> 3 ;
4 [label="gini = 0.0\nsamples = 6\nvalue = [6, 0]"] ;
0 -> 4 [labeldistance=2.5, labelangle=-45, headlabel="False"] ;
}